#ifndef IMU_RACER_MODEL_WEIGHTS_H_
#define IMU_RACER_MODEL_WEIGHTS_H_

#include <Arduino.h>

// Generated by imu-racer-controller trainer.
// Copy this file to firmware/model_weights.h before uploading firmware.

constexpr size_t kModelInputSize = 31;
constexpr size_t kModelHidden1Size = 32;
constexpr size_t kModelHidden2Size = 16;
constexpr size_t kModelOutputSize = 4;
constexpr uint8_t kModelFeatureVersion = 2;
constexpr unsigned long kModelWindowMs = 650UL;
constexpr float kKeyOnThreshold = 0.600000000f;
constexpr float kKeyOffThreshold = 0.450000000f;
constexpr uint8_t kMaxActiveKeys = 2;
constexpr float kComboSteerThreshold = 0.350000000f;
constexpr float kComboSteerMargin = 0.080000000f;
constexpr float kModelConfidenceThreshold = kKeyOnThreshold;
constexpr uint8_t kModelHoldFrames = 0;
constexpr bool kModelHasDefaultCalibration = true;
constexpr float kModelNeutralGravityX = -0.057080044f;
constexpr float kModelNeutralGravityY = -0.018392500f;
constexpr float kModelNeutralGravityZ = 0.998200173f;
constexpr float kModelForwardGravityX = 0.585526232f;
constexpr float kModelForwardGravityY = -0.012670609f;
constexpr float kModelForwardGravityZ = 0.810554432f;
constexpr float kModelBackwardGravityX = -0.613338236f;
constexpr float kModelBackwardGravityY = 0.007336077f;
constexpr float kModelBackwardGravityZ = 0.789786294f;
constexpr float kModelLeftGravityX = -0.072694271f;
constexpr float kModelLeftGravityY = -0.625923429f;
constexpr float kModelLeftGravityZ = 0.776489153f;
constexpr float kModelRightGravityX = -0.127321605f;
constexpr float kModelRightGravityY = 0.699080614f;
constexpr float kModelRightGravityZ = 0.703616021f;

const float kModelFeatureMean[] = {
    -0.055519246f, 0.008676143f, 0.809249420f, 0.001550162f, 0.001855087f, 0.001229262f,
    -0.001291797f, 0.002381503f, 0.001036291f, 31.840656733f, 46.970345297f, 43.725913456f,
    45.772068149f, 49.912845179f, 0.118883473f, 0.160517058f, 0.167269521f, 0.133806329f,
    3.644667933f, 2.957744733f, 4.997711496f, 1.088013223f, 0.823620143f, 0.773436448f,
    -0.227555556f, 0.229777778f, -0.036000000f, 7.075351692f, 0.002910044f, 0.514455301f,
    0.646214925f
};

const float kModelFeatureStd[] = {
    0.386605953f, 0.419944039f, 0.126994187f, 0.001492791f, 0.001352977f, 0.001271932f,
    0.004908705f, 0.005602915f, 0.004546320f, 17.047101220f, 23.462552194f, 21.328681993f,
    26.040428139f, 24.628828817f, 0.242175918f, 0.230655615f, 0.251569361f, 0.264885487f,
    0.620740471f, 0.391129804f, 0.328411279f, 0.815264208f, 0.541933983f, 0.619392049f,
    2.249571965f, 1.672882395f, 1.580377451f, 0.665399326f, 0.002136319f, 0.243002159f,
    0.189412236f
};

const float kModelDense0Weights[] = {
    -0.105075664f, -0.235275334f, -0.286084316f, 0.076363018f, 0.142776458f, 0.254874131f,
    0.134179413f, 0.108271750f, 0.187798761f, 0.280020687f, 0.290846954f, 0.232963788f,
    -0.364325071f, 0.421112330f, -0.235172527f, -0.441654999f, 0.422482963f, -0.046923167f,
    -0.001171822f, 0.077241897f, -0.232226005f, 0.223085318f, 0.116694640f, 0.131528011f,
    0.013279425f, -0.140396096f, 0.088053421f, -0.077079662f, -0.114734428f, 0.209904727f,
    -0.141073820f, 0.526325238f, -0.007608090f, 0.200393986f, -0.079847527f, 0.021576116f,
    -0.206830647f, -0.096569072f, 0.128232565f, 0.191479179f, -0.201467919f, -0.388971238f,
    0.158222937f, 0.239337593f, 0.030706875f, 0.461407949f, -0.447364561f, 0.016251006f,
    -0.325049044f, 0.218740791f, 0.125760503f, 0.165741698f, -0.135173185f, -0.161515042f,
    0.184126979f, 0.147416419f, -0.163867629f, -0.073076255f, -0.017518890f, -0.016502063f,
    -0.197784968f, 0.231620120f, 0.246904819f, -0.250190782f, 0.360214404f, 0.218017274f,
    -0.094531865f, -0.101316301f, -0.193008566f, 0.092185205f, -0.103458479f, 0.055783299f,
    0.046723066f, 0.274755447f, -0.111363634f, -0.085929961f, 0.270356151f, -0.361505110f,
    -0.139726844f, 0.009066871f, 0.145869627f, 0.179535682f, -0.148849928f, 0.175665542f,
    -0.274034872f, 0.198488929f, 0.258855956f, -0.044825816f, 0.279338684f, 0.165968364f,
    0.031726925f, 0.023347125f, 0.141383110f, 0.209426340f, 0.120160979f, 0.355775435f,
    0.154554146f, 0.048619902f, -0.243914174f, -0.144441496f, -0.090191412f, -0.089543513f,
    -0.098893480f, -0.193369366f, 0.337694789f, 0.143361779f, -0.177241179f, 0.225933623f,
    -0.355043265f, -0.428161805f, -0.275695495f, 0.117497352f, 0.114516336f, 0.081801341f,
    -0.141177687f, -0.272412085f, -0.010664835f, 0.184028103f, 0.105834047f, 0.023209885f,
    -0.246278319f, -0.107119829f, -0.227710443f, 0.100456137f, 0.151614193f, 0.317253007f,
    -0.331279922f, 0.294163044f, 0.280308228f, 0.010644676f, -0.171556410f, 0.083730239f,
    0.103440853f, 0.151893895f, 0.182661192f, 0.186825283f, 0.275735177f, -0.086954898f,
    -0.296599438f, -0.064367395f, 0.103011152f, 0.393807006f, 0.351398889f, 0.125310052f,
    0.006082538f, 0.380427381f, -0.095597489f, -0.002542069f, -0.055530080f, -0.020688714f,
    0.097697132f, 0.260974159f, 0.011642555f, 0.236481840f, 0.126161239f, 0.127886317f,
    0.323072798f, -0.115948562f, -0.045189774f, 0.171268246f, 0.006098363f, -0.221781216f,
    0.084726238f, 0.080948104f, -0.108610914f, -0.441672106f, 0.072133386f, 0.189034885f,
    -0.005006772f, 0.263747727f, -0.459559195f, -0.363499821f, -0.138144223f, 0.145532518f,
    -0.248668991f, 0.106479479f, 0.240916967f, -0.116049877f, 0.067438907f, -0.005962952f,
    -0.109667789f, 0.118907882f, 0.210794717f, 0.044602507f, -0.239169298f, -0.221762680f,
    0.250026631f, 0.209499594f, 0.326519161f, 0.187427501f, -0.106986880f, -0.310346564f,
    0.192381282f, 0.114848866f, -0.236367864f, -0.198472435f, -0.334893323f, 0.315015364f,
    0.219529987f, -0.174258858f, 0.403879936f, -0.122258106f, -0.341184556f, -0.132480425f,
    -0.110093333f, -0.109561216f, -0.276627194f, -0.123936415f, 0.121895119f, 0.009728963f,
    0.080721758f, -0.205709872f, 0.022871121f, -0.079329677f, -0.160898685f, -0.191864029f,
    0.336324738f, 0.152567309f, 0.149713470f, -0.038291225f, 0.330779965f, 0.182108001f,
    -0.150743819f, -0.129632496f, 0.263939275f, 0.071172239f, -0.031610697f, -0.140427784f,
    -0.108896784f, 0.101459124f, -0.479682229f, 0.285128671f, -0.210341272f, -0.349733956f,
    0.144974368f, 0.333905964f, 0.196030131f, 0.071942326f, -0.016965346f, -0.037069426f,
    0.228201849f, 0.085347427f, -0.150209875f, -0.130941031f, 0.195563511f, 0.264853815f,
    -0.186563963f, -0.143421530f, -0.380969593f, -0.359288211f, 0.357833227f, -0.112123279f,
    -0.018998067f, -0.085317273f, -0.014376806f, -0.159267462f, -0.218800547f, -0.452683212f,
    0.376908014f, -0.201741648f, 0.110105123f, 0.103013915f, -0.342326645f, 0.383155975f,
    -0.405519181f, -0.166528471f, -0.192606080f, -0.128358607f, 0.024394169f, -0.179466382f,
    0.350612596f, 0.008596403f, 0.024332193f, -0.062312660f, 0.048163921f, -0.109264203f,
    -0.112452982f, -0.407381501f, 0.115564062f, -0.052698380f, 0.153738304f, 0.084090812f,
    -0.170379821f, 0.025788494f, 0.083882212f, 0.288753191f, 0.039593772f, -0.078397313f,
    0.233597332f, 0.190174757f, -0.325337842f, 0.466762851f, -0.272943504f, -0.491781045f,
    0.346210684f, -0.536564031f, 0.357813813f, 0.273235343f, 0.192488750f, 0.141776060f,
    -0.159834770f, 0.013254795f, -0.225097623f, 0.170438775f, -0.176112232f, -0.093930547f,
    -0.238056116f, 0.130633725f, -0.115080596f, -0.217857284f, -0.186979564f, 0.105748214f,
    0.163526292f, 0.066140785f, -0.193868235f, -0.308369831f, 0.378062484f, -0.037090656f,
    -0.102205394f, -0.368904121f, 0.347595999f, -0.197677420f, -0.188615551f, 0.222814041f,
    -0.176284890f, 0.061022391f, -0.280012861f, -0.086236377f, -0.086852420f, 0.049906968f,
    0.055565191f, 0.015546338f, -0.115236143f, 0.139492642f, 0.148295797f, -0.215400902f,
    0.274017202f, -0.100968390f, -0.001845065f, -0.230059113f, 0.359797715f, 0.283993693f,
    -0.006419494f, 0.235031902f, 0.151538903f, -0.068898967f, 0.065664900f, -0.049111541f,
    0.135545586f, -0.125946981f, 0.130620951f, -0.228094441f, 0.041823239f, 0.384693861f,
    0.032378966f, 0.504703257f, -0.375841414f, -0.008916195f, -0.348228380f, 0.175096031f,
    -0.023586292f, 0.077073538f, -0.200834211f, 0.104408547f, -0.164023629f, -0.081473180f,
    -0.042999640f, -0.088451596f, -0.046564584f, -0.190888545f, 0.253887618f, -0.089164566f,
    0.166084927f, 0.424073134f, -0.194091786f, 0.135854817f, 0.005764017f, -0.128961817f,
    -0.098091556f, -0.233349877f, 0.080704824f, 0.159790365f, -0.002599960f, -0.012831554f,
    0.366981871f, -0.420089012f, -0.127962383f, 0.029086301f, 0.131420124f, 0.445908826f,
    0.344654879f, -0.056537374f, 0.003061267f, 0.069197658f, -0.035939282f, -0.273074524f,
    -0.087424830f, 0.052102721f, -0.175196434f, -0.019861299f, 0.098578511f, 0.075125465f,
    0.054658471f, 0.054090332f, -0.476855789f, -0.107710722f, -0.150874520f, 0.012218809f,
    -0.126221358f, 0.248813956f, 0.005948830f, -0.135085187f, -0.021881724f, 0.377548105f,
    0.125079675f, -0.277831935f, 0.236050933f, -0.326118784f, -0.363839973f, 0.411529826f,
    -0.024343092f, -0.033366671f, -0.071627733f, 0.044223539f, 0.168660265f, -0.052328125f,
    -0.037787251f, -0.219401798f, 0.031234236f, 0.118541424f, -0.089390655f, 0.141289222f,
    0.344693059f, -0.302098961f, 0.385641205f, 0.130989520f, 0.178314205f, 0.211642311f,
    -0.234739680f, 0.122821873f, 0.117637126f, 0.168092318f, 0.018306143f, 0.053845265f,
    -0.412934792f, 0.479840916f, -0.021612775f, 0.398927985f, 0.105036476f, -0.104607865f,
    -0.422504292f, -0.021814047f, 0.228216427f, -0.049049058f, 0.085867635f, -0.125611315f,
    0.106316212f, 0.122709335f, -0.032217541f, -0.029623106f, -0.073345683f, -0.207920501f,
    0.037093621f, 0.034212558f, 0.085434378f, 0.064288598f, 0.471910587f, 0.178372693f,
    -0.117198475f, -0.148832024f, -0.049118454f, 0.202065010f, -0.084678339f, 0.128897844f,
    0.090167083f, 0.249033677f, 0.188991550f, 0.440902187f, -0.342622019f, -0.022020328f,
    -0.096691117f, -0.325034994f, 0.168727384f, 0.327898988f, -0.002533437f, 0.174928230f,
    -0.308120438f, -0.387323553f, -0.011841697f, 0.189487249f, 0.220966087f, 0.018204034f,
    0.065933496f, 0.057710744f, 0.238044416f, 0.007013691f, 0.145112986f, -0.384088893f,
    0.321529509f, -0.286366423f, 0.193521322f, -0.034795379f, 0.049414965f, 0.304401817f,
    0.331001419f, -0.231301231f, -0.167316984f, 0.401817121f, -0.497804743f, 0.334958815f,
    0.039723300f, -0.422167546f, 0.445735122f, -0.410111070f, -0.088596865f, 0.180539052f,
    0.222075171f, -0.146918461f, -0.052960550f, -0.089414766f, 0.301979805f, -0.096704198f,
    -0.158586818f, -0.200809230f, -0.087074168f, 0.135952452f, -0.008495672f, -0.350913693f,
    0.274136790f, 0.252181392f, -0.119384359f, -0.223832377f, -0.180997254f, -0.058772961f,
    -0.005468023f, -0.244983260f, -0.280283873f, 0.380495487f, -0.106955238f, -0.123701520f,
    -0.264040045f, -0.401727188f, -0.038876014f, -0.251887131f, 0.105935103f, 0.286249018f,
    0.162985444f, -0.025217469f, -0.104088374f, 0.135230524f, -0.187695514f, -0.175556498f,
    0.084772772f, -0.251775209f, -0.067689197f, -0.289166627f, 0.023953827f, 0.231661164f,
    0.171107890f, 0.040833424f, -0.248839534f, 0.003983559f, 0.117416992f, 0.075706508f,
    -0.146026845f, -0.335167160f, -0.285902739f, 0.170372028f, 0.308946582f, 0.070175226f,
    0.389482344f, -0.196813747f, -0.371556681f, -0.397896452f, -0.427975652f, 0.178850310f,
    0.361362533f, -0.012301848f, -0.146460394f, 0.048305296f, -0.183459533f, 0.065782462f,
    0.123821757f, 0.251841315f, -0.181719447f, 0.242665915f, 0.055809132f, 0.262829107f,
    -0.091166259f, 0.436882059f, -0.526915454f, 0.407334291f, -0.010174243f, 0.091300838f,
    -0.295061557f, 0.016081048f, -0.246777982f, -0.117904977f, -0.237194463f, -0.180180555f,
    0.384075091f, -0.551846080f, 0.505260074f, 0.111975864f, -0.502372555f, 0.116951717f,
    -0.470091266f, 0.082131840f, -0.119981308f, 0.263728709f, -0.113209189f, -0.023282620f,
    -0.351007162f, -0.175508327f, -0.266277652f, 0.064782443f, -0.063914662f, -0.259126293f,
    -0.246227547f, 0.240459511f, 0.314421621f, -0.115364395f, 0.010313121f, 0.131400724f,
    0.021420334f, -0.034054268f, -0.177995953f, -0.024621643f, -0.172640151f, 0.220073604f,
    -0.252500224f, 0.182042354f, 0.128695838f, 0.351830711f, 0.340851227f, -0.366571188f,
    0.033940136f, -0.338459552f, -0.052630463f, 0.041224456f, 0.261449772f, -0.033195108f,
    -0.288622222f, -0.054045380f, 0.006644795f, 0.108687159f, -0.130330319f, 0.014018344f,
    -0.013468186f, 0.154272015f, -0.245620354f, -0.023393908f, -0.148450058f, -0.218803378f,
    -0.199205349f, 0.212722183f, 0.035656932f, 0.152884104f, -0.162323487f, -0.275277398f,
    0.177907320f, 0.309532706f, -0.193411634f, -0.207200824f, -0.110101338f, -0.046577137f,
    0.357725560f, -0.192429296f, -0.144029242f, -0.196747591f, 0.330821305f, 0.170088234f,
    -0.368853849f, 0.338083750f, -0.159605541f, 0.073243903f, -0.213539894f, 0.093350927f,
    -0.010528296f, -0.254635641f, -0.112481632f, -0.064935664f, -0.352816397f, 0.023724163f,
    -0.180862813f, 0.159875544f, -0.137559248f, 0.045608696f, 0.105703612f, -0.060818256f,
    0.087979534f, -0.223864218f, 0.460735032f, -0.479954872f, 0.213501946f, 0.205508371f,
    -0.419868684f, 0.506062444f, -0.185768355f, -0.383007925f, 0.187720027f, -0.151706396f,
    -0.053000786f, -0.130845782f, -0.025152718f, -0.000982050f, -0.004157345f, -0.055119579f,
    -0.073988979f, 0.012068813f, 0.090199858f, -0.103413406f, -0.115942228f, 0.012741820f,
    -0.444172504f, -0.119089806f, 0.167001860f, 0.036961745f, 0.165013852f, -0.077569752f,
    0.283803696f, -0.033175790f, -0.156429646f, 0.221018480f, 0.005957766f, -0.207749576f,
    0.091822090f, 0.062353609f, -0.184876657f, 0.366177836f, -0.232604540f, -0.062362859f,
    -0.296527948f, 0.216107007f, 0.023991786f, 0.212571090f, 0.130577666f, -0.173155544f,
    0.295930965f, -0.271315330f, -0.028300823f, -0.038402674f, -0.110370449f, 0.036007204f,
    -0.213259838f, -0.283655589f, -0.299128897f, 0.074705608f, 0.008983272f, 0.194639254f,
    0.199330765f, -0.064792572f, 0.277994444f, 0.029668774f, 0.094472502f, -0.376638984f,
    -0.390164058f, 0.379089690f, -0.292648841f, 0.171051238f, 0.532297436f, -0.096698618f,
    -0.467128398f, -0.286792992f, 0.132361729f, -0.015318515f, -0.009397841f, -0.106775126f,
    0.088899543f, 0.204512350f, 0.048954022f, 0.040687022f, 0.145975881f, 0.213629364f,
    -0.435900257f, -0.332339892f, 0.420307761f, -0.016581399f, 0.219213555f, -0.327801775f,
    -0.076935631f, 0.219828266f, -0.232980625f, -0.107619653f, 0.099801657f, 0.321532053f,
    -0.141948704f, 0.421904590f, -0.303562866f, -0.230162429f, -0.047237678f, -0.425947087f,
    0.356431640f, 0.353496128f, 0.262725470f, 0.107225132f, -0.248895733f, 0.133302422f,
    -0.074370032f, 0.187686617f, 0.243086846f, -0.014720057f, 0.185446937f, 0.210818407f,
    0.108775764f, 0.101388266f, -0.008477069f, 0.281240799f, -0.121077791f, -0.418643378f,
    0.017377492f, -0.150164189f, 0.312100218f, -0.027145961f, -0.336316462f, -0.155070442f,
    0.317249702f, -0.307843188f, 0.132783822f, -0.261601851f, -0.013340687f, 0.432786778f,
    -0.291365734f, 0.146742723f, -0.122815166f, -0.047479692f, -0.026991013f, -0.388561053f,
    -0.184553279f, -0.029918791f, -0.007096812f, 0.078477945f, 0.074714754f, -0.014079856f,
    -0.425546143f, -0.106769609f, 0.196639498f, 0.237196838f, 0.365116717f, 0.379340043f,
    -0.115516241f, -0.097327601f, 0.090530997f, -0.079474945f, 0.178703935f, -0.187297800f,
    -0.340464971f, -0.043468822f, -0.156482346f, 0.208084430f, -0.388276539f, -0.130155255f,
    -0.322315194f, -0.145531241f, 0.116026320f, 0.113413623f, -0.095792180f, -0.083798977f,
    -0.005480609f, -0.041566568f, 0.175550910f, -0.140232460f, -0.059732849f, 0.070793495f,
    0.114393497f, 0.077780580f, -0.333117201f, 0.315854527f, 0.452175336f, 0.235516328f,
    0.272402587f, -0.126938955f, 0.148494841f, 0.082386883f, -0.187668983f, 0.101708605f,
    -0.027902479f, -0.049105789f, -0.389443563f, -0.036612143f, -0.151781515f, -0.004460464f,
    -0.022051648f, -0.433720052f, -0.292554310f, 0.145322574f, -0.193588678f, -0.094867210f,
    0.099318447f, -0.012288211f, -0.103067676f, -0.267313545f, 0.058714745f, 0.195245403f,
    -0.090714296f, 0.143992651f, -0.236890187f, -0.358539649f, 0.141467388f, -0.225551425f,
    -0.375983992f, 0.304368052f, 0.121233347f, 0.109078174f, -0.168249580f, 0.020918094f,
    -0.114676356f, -0.053129098f, -0.259651046f, 0.243200176f, -0.459449078f, -0.315949154f,
    0.105064944f, -0.502739828f, 0.432833957f, -0.023201855f, -0.320309081f, -0.194547022f,
    0.072552503f, -0.019172622f, -0.333594381f, 0.092236607f, -0.031100174f, 0.411733008f,
    -0.001290589f, -0.192024039f, -0.217809124f, -0.254405458f, 0.003750929f, -0.079982437f,
    0.026701593f, 0.384668619f, 0.083512957f, 0.046160965f, -0.080145203f, 0.000540214f,
    0.194053206f, 0.062030521f, -0.040802383f, 0.057029735f, 0.077932850f, 0.325123296f,
    -0.031941877f, -0.361962474f, -0.195313588f, -0.132912748f, -0.021944359f, 0.307917521f,
    -0.063859819f, -0.252883515f, -0.184464246f, 0.066258889f, -0.202970197f, -0.313433429f,
    -0.173474453f, 0.070840887f, -0.085254612f, 0.054944557f, -0.276814956f, 0.069483722f,
    -0.320566031f, 0.426825296f, -0.168321524f, -0.231314253f, 0.194840132f, -0.103987823f,
    0.014024887f, -0.007388616f, -0.071074173f, 0.013384644f, 0.222565758f, -0.461091647f,
    0.085384171f, 0.244606264f, -0.080831336f, 0.250535746f, -0.246923504f, 0.065249095f,
    -0.094229362f, -0.206327308f, 0.051625160f, 0.090944574f, -0.263403124f, 0.094769684f,
    -0.074068572f, -0.040018374f, -0.150212041f, -0.064432836f, 0.142945477f, -0.041165908f,
    0.288764476f, -0.036291449f
};

const float kModelDense0Bias[] = {
    0.224089058f, 0.276993592f, 0.182878524f, 0.241084624f, 0.184389873f, 0.275613465f,
    0.172084932f, 0.154466881f, 0.235425898f, 0.284624788f, 0.214838720f, 0.163818957f,
    0.092977261f, 0.173349185f, 0.199363581f, 0.202518390f, 0.313665360f, 0.218601734f,
    0.110808890f, 0.288770151f, 0.176891345f, 0.107640524f, 0.247021645f, 0.246798453f,
    0.313407383f, 0.245316752f, 0.260891210f, 0.100612073f, 0.181320656f, 0.319829996f,
    0.070220368f, 0.215902147f
};

const float kModelDense1Weights[] = {
    0.494544430f, -0.368745637f, 0.224360828f, -0.026545369f, 0.232185177f, 0.132532443f,
    -0.173591881f, 0.091163377f, -0.268553566f, 0.283439225f, -0.171538539f, -0.016490258f,
    0.126243565f, 0.298334738f, -0.239055710f, 0.077511582f, 0.299930244f, -0.097256564f,
    0.185055784f, 0.387337008f, -0.124843131f, -0.209281986f, 0.029010587f, 0.228355110f,
    -0.056415373f, 0.301391540f, 0.096094270f, -0.030012405f, 0.111586608f, -0.148514781f,
    0.352843453f, -0.002607063f, -0.153628732f, 0.137108239f, 0.135400167f, 0.156061084f,
    0.397635790f, -0.016098251f, 0.236871122f, -0.076789507f, 0.105088474f, 0.415279739f,
    0.228034096f, -0.213146983f, 0.398790600f, -0.267758894f, -0.108725872f, 0.326107305f,
    0.153067269f, 0.386299475f, 0.177682965f, -0.047417723f, -0.229877505f, 0.149607413f,
    0.092148701f, 0.090454032f, 0.134443334f, 0.300535639f, -0.005338209f, 0.028802827f,
    0.087165414f, 0.079316595f, 0.260142529f, -0.255736857f, -0.328013309f, 0.230788566f,
    0.308500157f, 0.194405601f, -0.103492339f, 0.307075662f, 0.200446249f, 0.189901896f,
    0.273364191f, -0.099348062f, 0.221173445f, 0.412730491f, -0.088630495f, -0.210859897f,
    0.504858354f, 0.134612829f, 0.300151838f, 0.144278000f, -0.092961853f, 0.160371391f,
    0.376838157f, -0.089679139f, 0.006621600f, -0.015528942f, -0.067193100f, -0.225881942f,
    -0.182478749f, -0.077382627f, 0.344332847f, -0.167580707f, -0.238883365f, 0.351322095f,
    -0.259560608f, -0.257615563f, -0.165367256f, -0.166586296f, 0.007015612f, -0.039206357f,
    -0.073280850f, 0.072693938f, 0.182881470f, -0.249189356f, 0.104472202f, -0.133942912f,
    0.038765776f, 0.143695797f, -0.192047076f, 0.157013297f, 0.148113751f, 0.063033200f,
    -0.061837388f, -0.149783602f, 0.071959172f, -0.000313081f, -0.279329365f, -0.217066179f,
    0.059055800f, 0.036292621f, -0.229127213f, -0.000300608f, 0.058953865f, -0.057912398f,
    0.107993255f, 0.185891279f, -0.125044185f, 0.403557776f, 0.296317352f, 0.268934523f,
    -0.044946661f, 0.317895042f, 0.371038904f, 0.053347848f, 0.334282996f, -0.045365157f,
    0.264287731f, 0.343090272f, -0.371858497f, -0.165169575f, 0.085462263f, -0.267237915f,
    0.119002546f, 0.160427416f, -0.091415245f, 0.352604778f, 0.190316204f, 0.364119338f,
    0.292004599f, 0.294501066f, -0.129576876f, 0.049817464f, 0.206309643f, -0.143094871f,
    0.372633110f, 0.348362819f, 0.025694622f, 0.388314817f, -0.121764488f, -0.082081211f,
    -0.152540039f, -0.161224775f, -0.306205630f, 0.100700091f, -0.148002148f, 0.204709091f,
    0.242978238f, 0.140051636f, 0.119234148f, -0.017099330f, -0.264903116f, 0.147004086f,
    -0.148060706f, -0.055363990f, -0.228711477f, 0.316832156f, 0.092055257f, -0.085966327f,
    -0.075390802f, 0.371925720f, 0.610505077f, 0.272241083f, 0.233073545f, 0.304317132f,
    0.176719947f, -0.349419661f, -0.058629988f, 0.608799312f, -0.373600962f, 0.028216000f,
    -0.048671997f, -0.072231553f, -0.130257877f, -0.036202213f, 0.336340571f, 0.286701192f,
    0.294090840f, 0.279284497f, 0.111932617f, 0.056207064f, 0.115914731f, -0.014011330f,
    0.098226247f, 0.083960639f, -0.032896053f, 0.345674390f, -0.157916038f, 0.397496057f,
    0.356225466f, 0.038715624f, -0.212723895f, -0.132949946f, 0.301500841f, 0.178673022f,
    -0.144299309f, 0.304311708f, 0.459816106f, 0.099430458f, -0.029178429f, 0.361511924f,
    0.069953834f, -0.245123700f, 0.347180495f, 0.153145835f, 0.299694134f, 0.381332178f,
    -0.003543700f, 0.139565781f, 0.089890901f, -0.073678779f, 0.147160013f, -0.195471693f,
    0.165085090f, -0.117666340f, 0.066287035f, 0.138752111f, -0.054742043f, 0.138225638f,
    0.045856647f, 0.318977212f, -0.082125586f, 0.265781641f, 0.253026894f, 0.148770783f,
    -0.111417610f, 0.309262562f, 0.202889948f, 0.038365989f, -0.122971834f, 0.196205447f,
    0.206505803f, 0.172141362f, -0.044876919f, 0.016598082f, 0.308278103f, -0.048471926f,
    0.011226756f, -0.019147025f, 0.132072905f, -0.211322640f, 0.040227435f, -0.156602362f,
    0.063368141f, -0.289274372f, 0.128333318f, -0.349981323f, -0.303665680f, 0.432206464f,
    -0.312465086f, -0.112858816f, 0.546754672f, 0.161451730f, -0.174097969f, 0.289935779f,
    0.002353044f, -0.080051936f, -0.332801912f, 0.264299682f, 0.530003874f, -0.244937914f,
    -0.085743690f, 0.488424272f, 0.077570337f, 0.260373296f, -0.033977789f, 0.003560434f,
    0.064932583f, -0.042268587f, -0.104619001f, 0.354024647f, 0.147432960f, -0.039327020f,
    0.059338305f, 0.342379838f, 0.275012536f, 0.363096205f, 0.109366433f, -0.127791016f,
    0.394820577f, -0.123185133f, -0.195303273f, 0.173778850f, -0.117205879f, 0.218842806f,
    0.172217084f, -0.062452307f, -0.326893447f, -0.074738577f, -0.082190082f, 0.174464027f,
    -0.030101432f, 0.362848702f, 0.225086294f, 0.276630620f, 0.230349695f, 0.114527805f,
    0.128242807f, 0.130425140f, 0.016264443f, -0.164771027f, 0.013427240f, -0.203502677f,
    -0.156796510f, -0.171398852f, 0.187360545f, -0.138316045f, -0.152202793f, 0.108651846f,
    -0.107029153f, 0.123610433f, 0.128340358f, -0.220900596f, -0.103375287f, -0.206325100f,
    -0.203177331f, -0.226446342f, -0.270034556f, -0.158142909f, -0.208619275f, 0.067061784f,
    0.052399242f, 0.143121053f, 0.144997795f, 0.065329876f, -0.134561662f, -0.046044940f,
    -0.037638343f, -0.257521860f, -0.102496189f, 0.135233144f, 0.003845090f, -0.050012216f,
    0.002599716f, -0.051904302f, -0.113287302f, -0.033252478f, -0.148741710f, 0.075994550f,
    0.406326903f, 0.309850412f, 0.489433502f, -0.230906415f, -0.308753411f, 0.238287655f,
    -0.095059880f, 0.017465860f, 0.402263897f, 0.237701103f, -0.265646481f, 0.370698547f,
    -0.137208494f, 0.461342247f, 0.291605855f, 0.212046899f, 0.434186160f, 0.208704453f,
    0.266097591f, 0.236793384f, -0.091602089f, 0.253129632f, -0.533654907f, -0.158327511f,
    -0.000717672f, 0.430580105f, 0.150836507f, 0.308219160f, 0.458462274f, 0.227335474f,
    0.171489744f, 0.126844287f, -0.208200724f, 0.072713973f, 0.226853306f, 0.169820278f,
    0.068349536f, -0.059605649f, 0.537058530f, 0.412628305f, 0.186372381f, 0.314316681f,
    0.364559442f, 0.142046844f, 0.169729360f, -0.341719453f, -0.158236395f, -0.111807130f,
    -0.242536213f, 0.282239672f, 0.108069611f, 0.279329815f, 0.293507332f, -0.370566908f,
    0.301278289f, 0.454524772f, 0.522973457f, 0.170358377f, 0.035066393f, 0.404822511f,
    0.037814646f, 0.085439697f, 0.296345862f, 0.296173549f, -0.007020480f, 0.074804139f,
    -0.032236341f, 0.262890827f, 0.062726109f, 0.210275537f, 0.411170637f, 0.098381422f,
    0.299453159f, -0.041552379f, -0.156713486f, 0.255616870f, 0.391983661f, 0.063326980f,
    -0.263144661f, 0.179742390f, 0.048151990f, -0.132448603f, 0.007514991f, 0.077623048f,
    0.184923032f, 0.109360564f, 0.347983389f, 0.446907451f, -0.169155069f, 0.012212226f,
    0.096767459f, -0.099334691f, -0.265888560f, -0.075596916f, 0.173835992f, -0.028182517f,
    -0.196467061f, -0.082961032f, -0.065944588f, 0.102693921f, -0.138730054f, 0.173342687f,
    0.113108903f, -0.046744373f, 0.049571311f, 0.140861174f, 0.037350455f, -0.267166671f,
    0.127062138f, -0.016759505f, -0.027493050f, -0.187697755f, 0.159445833f, -0.244396308f,
    -0.123535999f, -0.133215591f, -0.067222329f, -0.100248350f, -0.007789956f, -0.023683244f,
    -0.038860519f, 0.159638947f, -0.229742888f, -0.111244364f, -0.139869407f, 0.091946889f,
    0.146940060f, -0.225963719f, -0.229198255f, 0.040783764f, -0.030559731f, -0.188677916f,
    0.216105048f, -0.270197444f, -0.240836984f, -0.032249631f, -0.126102531f, 0.069509210f,
    -0.180320192f, -0.030310390f, 0.095602404f, -0.140492750f, -0.238783141f, 0.086479844f,
    0.029184787f, -0.232247602f, 0.135538333f, -0.258353920f, 0.222036171f, 0.123164171f,
    -0.170729360f, 0.022678274f
};

const float kModelDense1Bias[] = {
    0.046404034f, 0.124476626f, 0.132207751f, -0.048698168f, 0.116388062f, 0.138640970f,
    0.145499372f, 0.129553415f, 0.229239011f, 0.205514469f, -0.029264448f, 0.157370295f,
    0.276808081f, 0.209276258f, -0.040133034f, -0.026290221f
};

const float kModelDense2Weights[] = {
    -0.033419837f, -0.345982549f, 0.386294894f, 0.143769842f, 0.068154818f, -0.282395891f,
    -0.606513397f, -0.273489871f, -0.414271061f, -0.623202945f, 0.155370817f, -0.598440495f,
    0.365416028f, 0.187142511f, 0.087888311f, 0.267791994f, 0.441229554f, -0.353972337f,
    -0.385516960f, -0.011674169f, -0.206810542f, 0.001152476f, -0.572475149f, -0.156165981f,
    0.703608771f, -0.624498510f, 0.070641504f, -0.125385479f, -0.606429669f, 0.230171374f,
    0.119767408f, 0.328228997f, -0.376742620f, -0.048234054f, -0.322410991f, 0.245042242f,
    -0.072177727f, 0.605404032f, 0.136480598f, -0.366129055f, -0.431915172f, 0.029891224f,
    0.190834426f, 0.394177797f, -0.709966167f, -0.674333054f, 0.302337909f, 0.285225013f,
    0.322226301f, 0.023534058f, -0.485118159f, 0.141163761f, -0.357717202f, -0.434431765f,
    0.246842640f, -0.407760892f, -0.339604993f, 0.407325846f, 0.063334126f, -0.636644141f,
    0.281505842f, -0.170759542f, 0.046324358f, 0.116561813f
};

const float kModelDense2Bias[] = {
    -0.101943297f, -0.025904347f, -0.112648006f, -0.078686428f
};

#endif  // IMU_RACER_MODEL_WEIGHTS_H_
